<!--
  ~ TERMS AND CONDITIONS FOR USE, REPRODUCTION, AND DISTRIBUTION
  ~ Copyright (c) 2008, Nationwide Health Information Network (NHIN) Connect.
  ~ All rights reserved.Redistribution and use in source and binary forms,
  ~ with or without modification, are permitted provided that the following
  ~ conditions are met:
  ~
  ~ - Redistributions of source code must retain the above copyright notice,
  ~ this list of conditions and the following disclaimer.
  ~ - Redistributions in binary form must reproduce the above copyright notice,
  ~ this list of conditions and the following disclaimer in the documentation
  ~ and/or other materials provided with the distribution.
  ~ - Neither the name of the NHIN Connect Project nor the names of its contributors
  ~ may be used to endorse or promote products derived from this software without
  ~ specific prior written permission.
  ~
  ~ THIS SOFTWARE IS PROVIDED BY THE COPYRIGHT HOLDERS AND CONTRIBUTORS "AS IS" AND ANY
  ~ EXPRESS OR IMPLIED WARRANTIES, INCLUDING, BUT NOT LIMITED TO, THE IMPLIED WARRANTIES
  ~ OF MERCHANTABILITY AND FITNESS FOR A PARTICULAR PURPOSE ARE DISCLAIMED. IN NO EVENT
  ~ SHALL THE COPYRIGHT OWNER OR CONTRIBUTORS BE LIABLE FOR ANY DIRECT, INDIRECT, INCIDENTAL,
  ~ SPECIAL, EXEMPLARY, OR CONSEQUENTIAL DAMAGES (INCLUDING, BUT NOT LIMITED TO, PROCUREMENT
  ~ OF SUBSTITUTE GOODS OR SERVICES; LOSS OF USE, DATA, OR PROFITS; OR BUSINESS INTERRUPTION
  ~ HOWEVER CAUSED AND ON ANY THEORY OF LIABILITY, WHETHER IN CONTRACT, STRICT LIABILITY, OR
  ~ TORT (INCLUDING NEGLIGENCE OR OTHERWISE) ARISING IN ANY WAY OUT OF THE USE OF THIS
  ~ SOFTWARE, EVEN IF ADVISED OF THE POSSIBILITY OF SUCH DAMAGE.
  ~
  ~    END OF TERMS AND CONDITIONS
  -->

<PMML version="4.0" xsi:schemaLocation="http://www.dmg.org/PMML-4_0 http://www.dmg.org/v4-0/pmml-4-0.xsd" xmlns="http://www.dmg.org/PMML-4_0" xmlns:xsi="http://www.w3.org/2001/XMLSchema-instance">
  <Header description="Mock PTSD Model" copyright="none">
  </Header>

  <DataDictionary numberOfFields="5">
    <DataField dataType="string" name="gender" optype="categorical" displayName="Patient Gender">
      <Value value="female"/>
      <Value value="male"/>
    </DataField>
    <DataField dataType="string" name="deployments" optype="categorical" displayName="Number of Deployments">
      <Value value="0"/>
      <Value value="1"/>
      <Value value="2+"/>
    </DataField>
    <DataField dataType="string" name="alcohol" optype="categorical" displayName="Alcoholic">
      <Value value="yes"/>
      <Value value="no"/>
    </DataField>
    <DataField dataType="double" name="age" optype="continuous" displayName="Age">
      <Interval closure="closedClosed" leftMargin="0" rightMargin="100" />
    </DataField>
    <DataField dataType="double" name="risk" optype="continuous" displayName="PTSD Risk Factor"/>
  </DataDictionary>


  <NeuralNetwork activationFunction="identity" algorithmName="neuralNetwork" functionName="regression" modelName="Mock PTSD">
    <MiningSchema>
      <MiningField name="gender"/>
      <MiningField name="deployments"/>
      <MiningField name="alcohol"/>
      <MiningField name="age" />
      <MiningField name="risk" usageType="predicted"/>
    </MiningSchema>
    <Output>
      <OutputField name="PTSD" targetField="risk"/>
    </Output>

    <NeuralInputs>
      <NeuralInput id="0">
        <DerivedField optype="continuous" dataType="double">
          <NormDiscrete field="gender" method="indicator" value="male"/>
        </DerivedField>
      </NeuralInput>
      <NeuralInput id="1">
        <DerivedField dataType="double" optype="continuous">
          <NormDiscrete field="gender" method="indicator" value="female"/>
        </DerivedField>
      </NeuralInput>

      <NeuralInput id="2">
        <DerivedField dataType="double" optype="continuous">
          <NormDiscrete field="deployments" value="0"/>
        </DerivedField>
      </NeuralInput>
      <NeuralInput id="3">
        <DerivedField dataType="double" optype="continuous">
          <NormDiscrete field="deployments" value="1"/>
        </DerivedField>
      </NeuralInput>
      <NeuralInput id="4">
        <DerivedField dataType="double" optype="continuous">
          <NormDiscrete field="deployments" value="2+"/>
        </DerivedField>
      </NeuralInput>

      <NeuralInput id="5">
        <DerivedField dataType="double" optype="continuous">
          <NormDiscrete field="alcohol" method="indicator" value="yes"/>
        </DerivedField>
      </NeuralInput>
      <NeuralInput id="6">
        <DerivedField dataType="double" optype="continuous">
          <NormDiscrete field="alcohol" method="indicator" value="no"/>
        </DerivedField>
      </NeuralInput>


      <NeuralInput id="7">
        <DerivedField dataType="double" optype="continuous">
          <FieldRef field="age"/>
        </DerivedField>
      </NeuralInput>

    </NeuralInputs>


    <NeuralLayer>
      <Neuron bias="0" id="8">
        <Con from="0" weight="0.1"/>
        <Con from="1" weight="0"/>
        <Con from="2" weight="0"/>
        <Con from="3" weight="0.05"/>
        <Con from="4" weight="0.1"/>
        <Con from="5" weight="0.1"/>
        <Con from="6" weight="0"/>
        <Con from="7" weight="0.005"/>
      </Neuron>
    </NeuralLayer>
    <NeuralLayer>
      <Neuron bias="0.0" id="9">
        <Con from="8" weight="1.0"/>
      </Neuron>
    </NeuralLayer>



    <NeuralOutputs>
      <NeuralOutput outputNeuron="9">
        <DerivedField dataType="double" optype="continuous">
          <FieldRef field="risk"/>
        </DerivedField>
      </NeuralOutput>
    </NeuralOutputs>
  </NeuralNetwork>
</PMML>