<!--
  ~ TERMS AND CONDITIONS FOR USE, REPRODUCTION, AND DISTRIBUTION
  ~ Copyright (c) 2008, Nationwide Health Information Network (NHIN) Connect.
  ~ All rights reserved.Redistribution and use in source and binary forms,
  ~ with or without modification, are permitted provided that the following
  ~ conditions are met:
  ~
  ~ - Redistributions of source code must retain the above copyright notice,
  ~ this list of conditions and the following disclaimer.
  ~ - Redistributions in binary form must reproduce the above copyright notice,
  ~ this list of conditions and the following disclaimer in the documentation
  ~ and/or other materials provided with the distribution.
  ~ - Neither the name of the NHIN Connect Project nor the names of its contributors
  ~ may be used to endorse or promote products derived from this software without
  ~ specific prior written permission.
  ~
  ~ THIS SOFTWARE IS PROVIDED BY THE COPYRIGHT HOLDERS AND CONTRIBUTORS "AS IS" AND ANY
  ~ EXPRESS OR IMPLIED WARRANTIES, INCLUDING, BUT NOT LIMITED TO, THE IMPLIED WARRANTIES
  ~ OF MERCHANTABILITY AND FITNESS FOR A PARTICULAR PURPOSE ARE DISCLAIMED. IN NO EVENT
  ~ SHALL THE COPYRIGHT OWNER OR CONTRIBUTORS BE LIABLE FOR ANY DIRECT, INDIRECT, INCIDENTAL,
  ~ SPECIAL, EXEMPLARY, OR CONSEQUENTIAL DAMAGES (INCLUDING, BUT NOT LIMITED TO, PROCUREMENT
  ~ OF SUBSTITUTE GOODS OR SERVICES; LOSS OF USE, DATA, OR PROFITS; OR BUSINESS INTERRUPTION
  ~ HOWEVER CAUSED AND ON ANY THEORY OF LIABILITY, WHETHER IN CONTRACT, STRICT LIABILITY, OR
  ~ TORT (INCLUDING NEGLIGENCE OR OTHERWISE) ARISING IN ANY WAY OUT OF THE USE OF THIS
  ~ SOFTWARE, EVEN IF ADVISED OF THE POSSIBILITY OF SUCH DAMAGE.
  ~
  ~    END OF TERMS AND CONDITIONS
  -->

<PMML version="4.0" xsi:schemaLocation="http://www.dmg.org/PMML-4_0 http://www.dmg.org/v4-0/pmml-4-0.xsd" xmlns="http://www.dmg.org/PMML-4_0" xmlns:xsi="http://www.w3.org/2001/XMLSchema-instance">
  <Header description="Mock Diabetes Risk Prediction Model" copyright="none">
  </Header>

  <DataDictionary numberOfFields="3">
    <DataField dataType="integer" name="candies" optype="continuous" displayName="Number of Candies a Day">
      <Interval closure="closedClosed" leftMargin="0" rightMargin="100" />
    </DataField>
    <DataField dataType="integer" name="apples" optype="continuous" displayName="Number of Apples a Day">
      <Interval closure="closedClosed" leftMargin="0" rightMargin="1" />
    </DataField>
    <DataField dataType="double" name="diabetesRisk" optype="continuous" displayName="Diabetes Risk Factor"/>
  </DataDictionary>


  <NeuralNetwork activationFunction="identity" algorithmName="neuralNetwork" functionName="regression" modelName="MockDiabetes">
    <MiningSchema>
      <MiningField name="candies"/>
      <MiningField name="apples"/>
      <MiningField name="diabetesRisk" usageType="predicted"/>
    </MiningSchema>
    <Output>
      <OutputField name="Diabetes" targetField="diabetesRisk"/>
    </Output>

    <NeuralInputs>

      <NeuralInput id="0">
        <DerivedField dataType="integer" optype="continuous">
          <FieldRef field="candies"/>
        </DerivedField>
      </NeuralInput>
      <NeuralInput id="1">
        <DerivedField dataType="integer" optype="continuous">
          <FieldRef field="apples"/>
        </DerivedField>
      </NeuralInput>

    </NeuralInputs>


    <NeuralLayer>
      <Neuron bias="0" id="2">
        <Con from="0" weight="0.005"/>
      </Neuron>
    </NeuralLayer>
    <NeuralLayer>
      <Neuron bias="0.0" id="3">
        <Con from="1" weight="0.5"/>
      </Neuron>
    </NeuralLayer>



    <NeuralOutputs>
      <NeuralOutput outputNeuron="3">
        <DerivedField dataType="double" optype="continuous">
          <FieldRef field="diabetesRisk"/>
        </DerivedField>
      </NeuralOutput>
    </NeuralOutputs>

  </NeuralNetwork>
</PMML>